digraph Tree {
node [shape=box, style="filled, rounded", color="black", fontname=helvetica] ;
edge [fontname=helvetica] ;
0 [label="south <= 0.5\nmse = 11276692.633\nsamples = 303\nvalue = 7064.076", fillcolor="#f9e3d3"] ;
1 [label="Floor <= 4.5\nmse = 11563893.194\nsamples = 244\nvalue = 7466.929", fillcolor="#f9e0cf"] ;
0 -> 1 [labeldistance=2.5, labelangle=45, headlabel="True"] ;
2 [label="Rooms <= 2.75\nmse = 10458447.244\nsamples = 202\nvalue = 7002.978", fillcolor="#f9e3d3"] ;
1 -> 2 ;
3 [label="Rooms <= 1.75\nmse = 2179590.548\nsamples = 84\nvalue = 4637.591", fillcolor="#fcf1e9"] ;
2 -> 3 ;
4 [label=" הצפון החדש - צפון, תל אביב יפו  <= 0.5\nmse = 413109.504\nsamples = 30\nvalue = 3413.636", fillcolor="#fef8f5"] ;
3 -> 4 ;
5 [label="Elevator <= 0.5\nmse = 416725.0\nsamples = 27\nvalue = 3370.0", fillcolor="#fef9f5"] ;
4 -> 5 ;
6 [label="Furniture <= 0.5\nmse = 294310.345\nsamples = 20\nvalue = 3500.0", fillcolor="#fef8f4"] ;
5 -> 6 ;
7 [label="north <= 0.5\nmse = 311888.889\nsamples = 10\nvalue = 3333.333", fillcolor="#fef9f5"] ;
6 -> 7 ;
8 [label="Square-meter <= 35.0\nmse = 500625.0\nsamples = 7\nvalue = 3500.0", fillcolor="#fef8f4"] ;
7 -> 8 ;
9 [label=" כרם התימנים, תל אביב יפו  <= 0.5\nmse = 139722.222\nsamples = 5\nvalue = 3166.667", fillcolor="#fefaf7"] ;
8 -> 9 ;
10 [label=" הצפון הישן - דרום, תל אביב יפו  <= 0.5\nmse = 37968.75\nsamples = 3\nvalue = 3212.5", fillcolor="#fefaf6"] ;
9 -> 10 ;
11 [label="Floor <= 1.0\nmse = 20000.0\nsamples = 2\nvalue = 3300.0", fillcolor="#fef9f6"] ;
10 -> 11 ;
12 [label="mse = 0.0\nsamples = 1\nvalue = 3200.0", fillcolor="#fefaf7"] ;
11 -> 12 ;
13 [label="mse = 0.0\nsamples = 1\nvalue = 3500.0", fillcolor="#fef8f4"] ;
11 -> 13 ;
14 [label="mse = 0.0\nsamples = 1\nvalue = 2950.0", fillcolor="#fefbf9"] ;
10 -> 14 ;
15 [label="Refurbished <= 0.5\nmse = 330625.0\nsamples = 2\nvalue = 3075.0", fillcolor="#fefaf8"] ;
9 -> 15 ;
16 [label="mse = 0.0\nsamples = 1\nvalue = 2500.0", fillcolor="#fffefd"] ;
15 -> 16 ;
17 [label="mse = 0.0\nsamples = 1\nvalue = 3650.0", fillcolor="#fdf7f2"] ;
15 -> 17 ;
18 [label="Square-meter <= 66.0\nmse = 250000.0\nsamples = 2\nvalue = 4500.0", fillcolor="#fcf2ea"] ;
8 -> 18 ;
19 [label="mse = 0.0\nsamples = 1\nvalue = 4000.0", fillcolor="#fdf5ef"] ;
18 -> 19 ;
20 [label="mse = 0.0\nsamples = 1\nvalue = 5000.0", fillcolor="#fcefe6"] ;
18 -> 20 ;
21 [label="Floor <= 0.5\nmse = 28163.265\nsamples = 3\nvalue = 3142.857", fillcolor="#fefaf7"] ;
7 -> 21 ;
22 [label="mse = 0.0\nsamples = 1\nvalue = 3400.0", fillcolor="#fef8f5"] ;
21 -> 22 ;
23 [label="Floor <= 1.5\nmse = 2400.0\nsamples = 2\nvalue = 3040.0", fillcolor="#fefbf8"] ;
21 -> 23 ;
24 [label="mse = 0.0\nsamples = 1\nvalue = 3000.0", fillcolor="#fefbf8"] ;
23 -> 24 ;
25 [label="mse = 0.0\nsamples = 1\nvalue = 3100.0", fillcolor="#fefaf8"] ;
23 -> 25 ;
26 [label="Square-meter <= 32.5\nmse = 213826.531\nsamples = 10\nvalue = 3678.571", fillcolor="#fdf7f2"] ;
6 -> 26 ;
27 [label=" נווה צדק, תל אביב יפו  <= 0.5\nmse = 143846.154\nsamples = 9\nvalue = 3600.0", fillcolor="#fdf7f3"] ;
26 -> 27 ;
28 [label="Rooms <= 1.25\nmse = 154930.556\nsamples = 8\nvalue = 3608.333", fillcolor="#fdf7f3"] ;
27 -> 28 ;
29 [label=" לב תל אביב, לב העיר צפון, תל אביב יפו  <= 0.5\nmse = 168677.686\nsamples = 7\nvalue = 3613.636", fillcolor="#fdf7f3"] ;
28 -> 29 ;
30 [label="Square-meter <= 21.5\nmse = 61020.408\nsamples = 5\nvalue = 3407.143", fillcolor="#fef8f5"] ;
29 -> 30 ;
31 [label="mse = 0.0\nsamples = 1\nvalue = 2850.0", fillcolor="#fefcfa"] ;
30 -> 31 ;
32 [label=" מונטיפיורי, הרכבת, תל אביב יפו  <= 0.5\nmse = 10833.333\nsamples = 4\nvalue = 3500.0", fillcolor="#fef8f4"] ;
30 -> 32 ;
33 [label="Square-meter <= 23.5\nmse = 3400.0\nsamples = 3\nvalue = 3540.0", fillcolor="#fdf8f3"] ;
32 -> 33 ;
34 [label="mse = 0.0\nsamples = 1\nvalue = 3500.0", fillcolor="#fef8f4"] ;
33 -> 34 ;
35 [label="Square-meter <= 25.0\nmse = 2500.0\nsamples = 2\nvalue = 3600.0", fillcolor="#fdf7f3"] ;
33 -> 35 ;
36 [label="mse = 0.0\nsamples = 1\nvalue = 3650.0", fillcolor="#fdf7f2"] ;
35 -> 36 ;
37 [label="mse = 0.0\nsamples = 1\nvalue = 3550.0", fillcolor="#fdf8f3"] ;
35 -> 37 ;
38 [label="mse = 0.0\nsamples = 1\nvalue = 3300.0", fillcolor="#fef9f6"] ;
32 -> 38 ;
39 [label="Floor <= 2.0\nmse = 151875.0\nsamples = 2\nvalue = 3975.0", fillcolor="#fdf5ef"] ;
29 -> 39 ;
40 [label="mse = 0.0\nsamples = 1\nvalue = 3300.0", fillcolor="#fef9f6"] ;
39 -> 40 ;
41 [label="mse = 0.0\nsamples = 1\nvalue = 4200.0", fillcolor="#fdf4ed"] ;
39 -> 41 ;
42 [label="mse = 0.0\nsamples = 1\nvalue = 3550.0", fillcolor="#fdf8f3"] ;
28 -> 42 ;
43 [label="mse = 0.0\nsamples = 1\nvalue = 3500.0", fillcolor="#fef8f4"] ;
27 -> 43 ;
44 [label="mse = 0.0\nsamples = 1\nvalue = 4700.0", fillcolor="#fcf1e9"] ;
26 -> 44 ;
45 [label=" הגוש הגדול, רמת אביב החדשה, נופי ים, תל אביב יפו  <= 0.5\nmse = 577438.017\nsamples = 7\nvalue = 3027.273", fillcolor="#fefbf8"] ;
5 -> 45 ;
46 [label=" לב תל אביב, לב העיר צפון, תל אביב יפו  <= 0.5\nmse = 115900.0\nsamples = 6\nvalue = 2810.0", fillcolor="#fefcfa"] ;
45 -> 46 ;
47 [label="Refurbished <= 0.5\nmse = 109960.938\nsamples = 4\nvalue = 2768.75", fillcolor="#fefcfb"] ;
46 -> 47 ;
48 [label=" כרם התימנים, תל אביב יפו  <= 0.5\nmse = 60612.245\nsamples = 3\nvalue = 2678.571", fillcolor="#fffdfb"] ;
47 -> 48 ;
49 [label="Floor <= 2.5\nmse = 50625.0\nsamples = 2\nvalue = 2625.0", fillcolor="#fffdfc"] ;
48 -> 49 ;
50 [label="mse = 0.0\nsamples = 1\nvalue = 2400.0", fillcolor="#fffefe"] ;
49 -> 50 ;
51 [label="mse = 0.0\nsamples = 1\nvalue = 2850.0", fillcolor="#fefcfa"] ;
49 -> 51 ;
52 [label="mse = 0.0\nsamples = 1\nvalue = 3000.0", fillcolor="#fefbf8"] ;
48 -> 52 ;
53 [label="mse = 0.0\nsamples = 1\nvalue = 3400.0", fillcolor="#fef8f5"] ;
47 -> 53 ;
54 [label="Floor <= 2.0\nmse = 105625.0\nsamples = 2\nvalue = 2975.0", fillcolor="#fefbf9"] ;
46 -> 54 ;
55 [label="mse = 0.0\nsamples = 1\nvalue = 2650.0", fillcolor="#fffdfc"] ;
54 -> 55 ;
56 [label="mse = 0.0\nsamples = 1\nvalue = 3300.0", fillcolor="#fef9f6"] ;
54 -> 56 ;
57 [label="mse = 0.0\nsamples = 1\nvalue = 5200.0", fillcolor="#fbeee4"] ;
45 -> 57 ;
58 [label="Rooms <= 1.25\nmse = 167500.0\nsamples = 3\nvalue = 3850.0", fillcolor="#fdf6f1"] ;
4 -> 58 ;
59 [label="Floor <= 0.5\nmse = 222222.222\nsamples = 2\nvalue = 3833.333", fillcolor="#fdf6f1"] ;
58 -> 59 ;
60 [label="mse = 0.0\nsamples = 1\nvalue = 3500.0", fillcolor="#fef8f4"] ;
59 -> 60 ;
61 [label="mse = 0.0\nsamples = 1\nvalue = 4500.0", fillcolor="#fcf2ea"] ;
59 -> 61 ;
62 [label="mse = 0.0\nsamples = 1\nvalue = 3900.0", fillcolor="#fdf5f0"] ;
58 -> 62 ;
63 [label="Square-meter <= 49.0\nmse = 1971254.48\nsamples = 54\nvalue = 5216.667", fillcolor="#fbeee4"] ;
3 -> 63 ;
64 [label="Elevator <= 0.5\nmse = 817784.763\nsamples = 18\nvalue = 4248.077", fillcolor="#fdf3ed"] ;
63 -> 64 ;
65 [label=" הצפון הישן - דרום, תל אביב יפו  <= 0.5\nmse = 562618.75\nsamples = 14\nvalue = 3997.5", fillcolor="#fdf5ef"] ;
64 -> 65 ;
66 [label=" תל חיים, תל אביב יפו  <= 0.5\nmse = 505318.56\nsamples = 13\nvalue = 3931.579", fillcolor="#fdf5f0"] ;
65 -> 66 ;
67 [label=" הצפון הישן - צפון, תל אביב יפו  <= 0.5\nmse = 500273.438\nsamples = 10\nvalue = 4018.75", fillcolor="#fdf5ef"] ;
66 -> 67 ;
68 [label=" רמת אביב, תל אביב יפו  <= 0.5\nmse = 375763.889\nsamples = 7\nvalue = 3758.333", fillcolor="#fdf6f1"] ;
67 -> 68 ;
69 [label=" מונטיפיורי, הרכבת, תל אביב יפו  <= 0.5\nmse = 280900.0\nsamples = 6\nvalue = 3590.0", fillcolor="#fdf7f3"] ;
68 -> 69 ;
70 [label="north <= 0.5\nmse = 392500.0\nsamples = 4\nvalue = 3650.0", fillcolor="#fdf7f2"] ;
69 -> 70 ;
71 [label=" הצפון החדש - צפון, תל אביב יפו  <= 0.5\nmse = 62500.0\nsamples = 2\nvalue = 4250.0", fillcolor="#fdf3ed"] ;
70 -> 71 ;
72 [label="mse = 0.0\nsamples = 1\nvalue = 4000.0", fillcolor="#fdf5ef"] ;
71 -> 72 ;
73 [label="mse = 0.0\nsamples = 1\nvalue = 4500.0", fillcolor="#fcf2ea"] ;
71 -> 73 ;
74 [label="Square-meter <= 42.5\nmse = 2500.0\nsamples = 2\nvalue = 3050.0", fillcolor="#fefbf8"] ;
70 -> 74 ;
75 [label="mse = 0.0\nsamples = 1\nvalue = 3100.0", fillcolor="#fefaf8"] ;
74 -> 75 ;
76 [label="mse = 0.0\nsamples = 1\nvalue = 3000.0", fillcolor="#fefbf8"] ;
74 -> 76 ;
77 [label="Refurbished <= 0.5\nmse = 202500.0\nsamples = 2\nvalue = 3550.0", fillcolor="#fdf8f3"] ;
69 -> 77 ;
78 [label="mse = 0.0\nsamples = 1\nvalue = 4000.0", fillcolor="#fdf5ef"] ;
77 -> 78 ;
79 [label="mse = 0.0\nsamples = 1\nvalue = 3100.0", fillcolor="#fefaf8"] ;
77 -> 79 ;
80 [label="mse = 0.0\nsamples = 1\nvalue = 4600.0", fillcolor="#fcf1ea"] ;
68 -> 80 ;
81 [label="Furniture <= 0.5\nmse = 60000.0\nsamples = 3\nvalue = 4800.0", fillcolor="#fcf0e8"] ;
67 -> 81 ;
82 [label="mse = 8888.889\nsamples = 2\nvalue = 4666.667", fillcolor="#fcf1e9"] ;
81 -> 82 ;
83 [label="mse = 0.0\nsamples = 1\nvalue = 5200.0", fillcolor="#fbeee4"] ;
81 -> 83 ;
84 [label="Square-meter <= 37.5\nmse = 275555.556\nsamples = 3\nvalue = 3466.667", fillcolor="#fef8f4"] ;
66 -> 84 ;
85 [label="Rooms <= 2.25\nmse = 250000.0\nsamples = 2\nvalue = 3700.0", fillcolor="#fdf7f2"] ;
84 -> 85 ;
86 [label="mse = 0.0\nsamples = 1\nvalue = 4200.0", fillcolor="#fdf4ed"] ;
85 -> 86 ;
87 [label="mse = 0.0\nsamples = 1\nvalue = 3200.0", fillcolor="#fefaf7"] ;
85 -> 87 ;
88 [label="mse = 0.0\nsamples = 1\nvalue = 3000.0", fillcolor="#fefbf8"] ;
84 -> 88 ;
89 [label="mse = 0.0\nsamples = 1\nvalue = 5250.0", fillcolor="#fbede3"] ;
65 -> 89 ;
90 [label=" מונטיפיורי, הרכבת, תל אביב יפו  <= 0.5\nmse = 761388.889\nsamples = 4\nvalue = 5083.333", fillcolor="#fceee5"] ;
64 -> 90 ;
91 [label="mse = 0.0\nsamples = 1\nvalue = 6200.0", fillcolor="#fae8db"] ;
90 -> 91 ;
92 [label="Furniture <= 0.5\nmse = 614400.0\nsamples = 3\nvalue = 4860.0", fillcolor="#fcf0e7"] ;
90 -> 92 ;
93 [label="mse = 0.0\nsamples = 1\nvalue = 5500.0", fillcolor="#fbece1"] ;
92 -> 93 ;
94 [label="Square-meter <= 41.5\nmse = 640000.0\nsamples = 2\nvalue = 4700.0", fillcolor="#fcf1e9"] ;
92 -> 94 ;
95 [label="mse = 0.0\nsamples = 1\nvalue = 3900.0", fillcolor="#fdf5f0"] ;
94 -> 95 ;
96 [label="mse = 0.0\nsamples = 1\nvalue = 5500.0", fillcolor="#fbece1"] ;
94 -> 96 ;
97 [label=" לב תל אביב, לב העיר צפון, תל אביב יפו  <= 0.5\nmse = 1913526.398\nsamples = 36\nvalue = 5592.537", fillcolor="#fbebe0"] ;
63 -> 97 ;
98 [label=" תל חיים, תל אביב יפו  <= 0.5\nmse = 1595955.556\nsamples = 32\nvalue = 5393.333", fillcolor="#fbede2"] ;
97 -> 98 ;
99 [label=" הצפון החדש - דרום, תל אביב יפו  <= 0.5\nmse = 1574500.0\nsamples = 26\nvalue = 5630.0", fillcolor="#fbebe0"] ;
98 -> 99 ;
100 [label=" נווה צדק, תל אביב יפו  <= 0.5\nmse = 1665703.938\nsamples = 25\nvalue = 5606.383", fillcolor="#fbebe0"] ;
99 -> 100 ;
101 [label="north <= 0.5\nmse = 581819.728\nsamples = 21\nvalue = 5435.714", fillcolor="#fbece2"] ;
100 -> 101 ;
102 [label="Refurbished <= 0.5\nmse = 619446.367\nsamples = 15\nvalue = 5523.529", fillcolor="#fbece1"] ;
101 -> 102 ;
103 [label="Square-meter <= 51.5\nmse = 340609.418\nsamples = 6\nvalue = 5521.053", fillcolor="#fbece1"] ;
102 -> 103 ;
104 [label="Furniture <= 0.5\nmse = 61224.49\nsamples = 2\nvalue = 5014.286", fillcolor="#fcefe6"] ;
103 -> 104 ;
105 [label="mse = 0.0\nsamples = 1\nvalue = 4800.0", fillcolor="#fcf0e8"] ;
104 -> 105 ;
106 [label="mse = 0.0\nsamples = 1\nvalue = 5300.0", fillcolor="#fbede3"] ;
104 -> 106 ;
107 [label=" הצפון הישן - צפון, תל אביב יפו  <= 0.5\nmse = 266388.889\nsamples = 4\nvalue = 5816.667", fillcolor="#fbeade"] ;
103 -> 107 ;
108 [label="Rooms <= 2.25\nmse = 39183.673\nsamples = 2\nvalue = 5428.571", fillcolor="#fbece2"] ;
107 -> 108 ;
109 [label="mse = 0.0\nsamples = 1\nvalue = 5600.0", fillcolor="#fbebe0"] ;
108 -> 109 ;
110 [label="mse = 0.0\nsamples = 1\nvalue = 5200.0", fillcolor="#fbeee4"] ;
108 -> 110 ;
111 [label="Square-meter <= 62.5\nmse = 78400.0\nsamples = 2\nvalue = 6360.0", fillcolor="#fae7d9"] ;
107 -> 111 ;
112 [label="mse = 0.0\nsamples = 1\nvalue = 6500.0", fillcolor="#fae6d8"] ;
111 -> 112 ;
113 [label="mse = 0.0\nsamples = 1\nvalue = 5800.0", fillcolor="#fbeade"] ;
111 -> 113 ;
114 [label="Floor <= 3.5\nmse = 972622.222\nsamples = 9\nvalue = 5526.667", fillcolor="#fbece1"] ;
102 -> 114 ;
115 [label=" כרם התימנים, תל אביב יפו  <= 0.5\nmse = 331875.0\nsamples = 7\nvalue = 5325.0", fillcolor="#fbede3"] ;
114 -> 115 ;
116 [label=" הצפון החדש - צפון, תל אביב יפו  <= 0.5\nmse = 442500.0\nsamples = 5\nvalue = 5450.0", fillcolor="#fbece2"] ;
115 -> 116 ;
117 [label="mse = 0.0\nsamples = 1\nvalue = 4200.0", fillcolor="#fdf4ed"] ;
116 -> 117 ;
118 [label="Floor <= 2.0\nmse = 250612.245\nsamples = 4\nvalue = 5628.571", fillcolor="#fbebe0"] ;
116 -> 118 ;
119 [label="Rooms <= 2.25\nmse = 341600.0\nsamples = 3\nvalue = 5680.0", fillcolor="#fbebdf"] ;
118 -> 119 ;
120 [label="Elevator <= 0.5\nmse = 142222.222\nsamples = 2\nvalue = 5266.667", fillcolor="#fbede3"] ;
119 -> 120 ;
121 [label="mse = 0.0\nsamples = 1\nvalue = 5000.0", fillcolor="#fcefe6"] ;
120 -> 121 ;
122 [label="mse = 0.0\nsamples = 1\nvalue = 5800.0", fillcolor="#fbeade"] ;
120 -> 122 ;
123 [label="mse = 0.0\nsamples = 1\nvalue = 6300.0", fillcolor="#fae7da"] ;
119 -> 123 ;
124 [label="mse = 0.0\nsamples = 1\nvalue = 5500.0", fillcolor="#fbece1"] ;
118 -> 124 ;
125 [label="Rooms <= 2.25\nmse = 16875.0\nsamples = 2\nvalue = 5075.0", fillcolor="#fcefe5"] ;
115 -> 125 ;
126 [label="mse = 0.0\nsamples = 1\nvalue = 5000.0", fillcolor="#fcefe6"] ;
125 -> 126 ;
127 [label="mse = 0.0\nsamples = 1\nvalue = 5300.0", fillcolor="#fbede3"] ;
125 -> 127 ;
128 [label=" הצפון החדש - צפון, תל אביב יפו  <= 0.5\nmse = 2722222.222\nsamples = 2\nvalue = 6333.333", fillcolor="#fae7d9"] ;
114 -> 128 ;
129 [label="mse = 0.0\nsamples = 1\nvalue = 4000.0", fillcolor="#fdf5ef"] ;
128 -> 129 ;
130 [label="mse = 0.0\nsamples = 1\nvalue = 7500.0", fillcolor="#f9e0ce"] ;
128 -> 130 ;
131 [label=" הדר יוסף, תל אביב יפו  <= 0.5\nmse = 249843.75\nsamples = 6\nvalue = 5062.5", fillcolor="#fcefe5"] ;
101 -> 131 ;
132 [label="Furniture <= 0.5\nmse = 142040.816\nsamples = 5\nvalue = 4928.571", fillcolor="#fcefe6"] ;
131 -> 132 ;
133 [label="mse = 0.0\nsamples = 1\nvalue = 5200.0", fillcolor="#fbeee4"] ;
132 -> 133 ;
134 [label=" רמת אביב, תל אביב יפו  <= 0.5\nmse = 151388.889\nsamples = 4\nvalue = 4883.333", fillcolor="#fcf0e7"] ;
132 -> 134 ;
135 [label="Rooms <= 2.25\nmse = 151875.0\nsamples = 3\nvalue = 4725.0", fillcolor="#fcf1e8"] ;
134 -> 135 ;
136 [label="Refurbished <= 0.5\nmse = 202500.0\nsamples = 2\nvalue = 4950.0", fillcolor="#fcefe6"] ;
135 -> 136 ;
137 [label="mse = 0.0\nsamples = 1\nvalue = 4500.0", fillcolor="#fcf2ea"] ;
136 -> 137 ;
138 [label="mse = 0.0\nsamples = 1\nvalue = 5400.0", fillcolor="#fbede2"] ;
136 -> 138 ;
139 [label="mse = 0.0\nsamples = 1\nvalue = 4500.0", fillcolor="#fcf2ea"] ;
135 -> 139 ;
140 [label="mse = 0.0\nsamples = 1\nvalue = 5200.0", fillcolor="#fbeee4"] ;
134 -> 140 ;
141 [label="mse = 0.0\nsamples = 1\nvalue = 6000.0", fillcolor="#fae9dc"] ;
131 -> 141 ;
142 [label="Square-meter <= 70.0\nmse = 8470400.0\nsamples = 4\nvalue = 7040.0", fillcolor="#f9e3d3"] ;
100 -> 142 ;
143 [label="Refurbished <= 0.5\nmse = 220000.0\nsamples = 3\nvalue = 5600.0", fillcolor="#fbebe0"] ;
142 -> 143 ;
144 [label="Furniture <= 0.5\nmse = 8888.889\nsamples = 2\nvalue = 5866.667", fillcolor="#fbeade"] ;
143 -> 144 ;
145 [label="mse = 0.0\nsamples = 1\nvalue = 6000.0", fillcolor="#fae9dc"] ;
144 -> 145 ;
146 [label="mse = 0.0\nsamples = 1\nvalue = 5800.0", fillcolor="#fbeade"] ;
144 -> 146 ;
147 [label="mse = 0.0\nsamples = 1\nvalue = 4800.0", fillcolor="#fcf0e8"] ;
143 -> 147 ;
148 [label="mse = 0.0\nsamples = 1\nvalue = 12800.0", fillcolor="#f2c19d"] ;
142 -> 148 ;
149 [label="mse = 0.0\nsamples = 1\nvalue = 6000.0", fillcolor="#fae9dc"] ;
99 -> 149 ;
150 [label="Rooms <= 2.25\nmse = 22900.0\nsamples = 6\nvalue = 4210.0", fillcolor="#fdf4ed"] ;
98 -> 150 ;
151 [label="Furniture <= 0.5\nmse = 40000.0\nsamples = 2\nvalue = 4200.0", fillcolor="#fdf4ed"] ;
150 -> 151 ;
152 [label="mse = 0.0\nsamples = 1\nvalue = 4400.0", fillcolor="#fcf3eb"] ;
151 -> 152 ;
153 [label="mse = 0.0\nsamples = 1\nvalue = 4000.0", fillcolor="#fdf5ef"] ;
151 -> 153 ;
154 [label="Furniture <= 0.5\nmse = 11388.889\nsamples = 4\nvalue = 4216.667", fillcolor="#fdf4ed"] ;
150 -> 154 ;
155 [label="Floor <= 3.0\nmse = 8888.889\nsamples = 2\nvalue = 4133.333", fillcolor="#fdf4ee"] ;
154 -> 155 ;
156 [label="mse = 0.0\nsamples = 1\nvalue = 4200.0", fillcolor="#fdf4ed"] ;
155 -> 156 ;
157 [label="mse = 0.0\nsamples = 1\nvalue = 4000.0", fillcolor="#fdf5ef"] ;
155 -> 157 ;
158 [label="mse = 0.0\nsamples = 2\nvalue = 4300.0", fillcolor="#fdf3ec"] ;
154 -> 158 ;
159 [label="Rooms <= 2.25\nmse = 1380000.0\nsamples = 4\nvalue = 7300.0", fillcolor="#f9e1d0"] ;
97 -> 159 ;
160 [label="Square-meter <= 53.5\nmse = 4000000.0\nsamples = 2\nvalue = 8000.0", fillcolor="#f8ddca"] ;
159 -> 160 ;
161 [label="mse = 0.0\nsamples = 1\nvalue = 10000.0", fillcolor="#f6d1b7"] ;
160 -> 161 ;
162 [label="mse = 0.0\nsamples = 1\nvalue = 6000.0", fillcolor="#fae9dc"] ;
160 -> 162 ;
163 [label="Elevator <= 0.5\nmse = 57600.0\nsamples = 2\nvalue = 7020.0", fillcolor="#f9e3d3"] ;
159 -> 163 ;
164 [label="mse = 0.0\nsamples = 1\nvalue = 6900.0", fillcolor="#f9e4d4"] ;
163 -> 164 ;
165 [label="mse = 0.0\nsamples = 1\nvalue = 7500.0", fillcolor="#f9e0ce"] ;
163 -> 165 ;
166 [label="Square-meter <= 129.0\nmse = 9308354.667\nsamples = 118\nvalue = 8783.516", fillcolor="#f7d8c2"] ;
2 -> 166 ;
167 [label=" הצפון הישן - דרום, תל אביב יפו  <= 0.5\nmse = 4007283.951\nsamples = 94\nvalue = 7797.222", fillcolor="#f8decc"] ;
166 -> 167 ;
168 [label="Elevator <= 0.5\nmse = 3662423.54\nsamples = 88\nvalue = 7651.128", fillcolor="#f8dfcd"] ;
167 -> 168 ;
169 [label=" יד אליהו, תל אביב יפו  <= 0.5\nmse = 2855644.719\nsamples = 53\nvalue = 6981.481", fillcolor="#f9e3d3"] ;
168 -> 169 ;
170 [label=" רמת אביב, תל אביב יפו  <= 0.5\nmse = 2462454.316\nsamples = 46\nvalue = 7339.13", fillcolor="#f9e1d0"] ;
169 -> 170 ;
171 [label="Furniture <= 0.5\nmse = 2438136.095\nsamples = 44\nvalue = 7438.462", fillcolor="#f9e0cf"] ;
170 -> 171 ;
172 [label=" לב תל אביב, לב העיר צפון, תל אביב יפו  <= 0.5\nmse = 2027324.38\nsamples = 32\nvalue = 7122.727", fillcolor="#f9e2d2"] ;
171 -> 172 ;
173 [label="Rooms <= 4.75\nmse = 2181118.75\nsamples = 30\nvalue = 7147.5", fillcolor="#f9e2d2"] ;
172 -> 173 ;
174 [label="Refurbished <= 0.5\nmse = 1349439.058\nsamples = 28\nvalue = 6973.684", fillcolor="#f9e3d3"] ;
173 -> 174 ;
175 [label=" רמת אביב ג', תל אביב יפו  <= 0.5\nmse = 1311020.761\nsamples = 14\nvalue = 7047.059", fillcolor="#f9e3d3"] ;
174 -> 175 ;
176 [label=" הדר יוסף, תל אביב יפו  <= 0.5\nmse = 1373085.938\nsamples = 13\nvalue = 7081.25", fillcolor="#f9e3d2"] ;
175 -> 176 ;
177 [label="Floor <= 2.5\nmse = 1462920.918\nsamples = 11\nvalue = 7160.714", fillcolor="#f9e2d2"] ;
176 -> 177 ;
178 [label=" כרם התימנים, תל אביב יפו  <= 0.5\nmse = 1563677.686\nsamples = 9\nvalue = 7386.364", fillcolor="#f9e1cf"] ;
177 -> 178 ;
179 [label="Rooms <= 3.5\nmse = 968625.0\nsamples = 8\nvalue = 7125.0", fillcolor="#f9e2d2"] ;
178 -> 179 ;
180 [label="Floor <= 1.5\nmse = 601718.75\nsamples = 4\nvalue = 6837.5", fillcolor="#f9e4d5"] ;
179 -> 180 ;
181 [label="mse = 0.0\nsamples = 1\nvalue = 6200.0", fillcolor="#fae8db"] ;
180 -> 181 ;
182 [label="Square-meter <= 83.5\nmse = 621666.667\nsamples = 3\nvalue = 7050.0", fillcolor="#f9e3d3"] ;
180 -> 182 ;
183 [label="Square-meter <= 77.5\nmse = 105625.0\nsamples = 2\nvalue = 7575.0", fillcolor="#f9e0ce"] ;
182 -> 183 ;
184 [label="mse = 0.0\nsamples = 1\nvalue = 7900.0", fillcolor="#f8decb"] ;
183 -> 184 ;
185 [label="mse = 0.0\nsamples = 1\nvalue = 7250.0", fillcolor="#f9e2d1"] ;
183 -> 185 ;
186 [label="mse = 0.0\nsamples = 1\nvalue = 6000.0", fillcolor="#fae9dc"] ;
182 -> 186 ;
187 [label="Floor <= 1.5\nmse = 1121388.889\nsamples = 4\nvalue = 7316.667", fillcolor="#f9e1d0"] ;
179 -> 187 ;
188 [label="Rooms <= 4.25\nmse = 222222.222\nsamples = 2\nvalue = 6666.667", fillcolor="#fae5d6"] ;
187 -> 188 ;
189 [label="mse = 0.0\nsamples = 1\nvalue = 6000.0", fillcolor="#fae9dc"] ;
188 -> 189 ;
190 [label="mse = 0.0\nsamples = 1\nvalue = 7000.0", fillcolor="#f9e3d3"] ;
188 -> 190 ;
191 [label="Square-meter <= 117.0\nmse = 1175555.556\nsamples = 2\nvalue = 7966.667", fillcolor="#f8ddca"] ;
187 -> 191 ;
192 [label="mse = 0.0\nsamples = 1\nvalue = 9500.0", fillcolor="#f6d4bc"] ;
191 -> 192 ;
193 [label="mse = 0.0\nsamples = 1\nvalue = 7200.0", fillcolor="#f9e2d1"] ;
191 -> 193 ;
194 [label="mse = 0.0\nsamples = 1\nvalue = 10000.0", fillcolor="#f6d1b7"] ;
178 -> 194 ;
195 [label="Rooms <= 3.75\nmse = 222222.222\nsamples = 2\nvalue = 6333.333", fillcolor="#fae7d9"] ;
177 -> 195 ;
196 [label="mse = 0.0\nsamples = 1\nvalue = 7000.0", fillcolor="#f9e3d3"] ;
195 -> 196 ;
197 [label="mse = 0.0\nsamples = 1\nvalue = 6000.0", fillcolor="#fae9dc"] ;
195 -> 197 ;
198 [label="Square-meter <= 88.5\nmse = 390625.0\nsamples = 2\nvalue = 6525.0", fillcolor="#fae6d8"] ;
176 -> 198 ;
199 [label="mse = 0.0\nsamples = 1\nvalue = 5900.0", fillcolor="#fbeadd"] ;
198 -> 199 ;
200 [label="mse = 0.0\nsamples = 1\nvalue = 7150.0", fillcolor="#f9e2d2"] ;
198 -> 200 ;
201 [label="mse = 0.0\nsamples = 1\nvalue = 6500.0", fillcolor="#fae6d8"] ;
175 -> 201 ;
202 [label="Square-meter <= 92.5\nmse = 1372653.061\nsamples = 14\nvalue = 6914.286", fillcolor="#f9e4d4"] ;
174 -> 202 ;
203 [label=" הצפון החדש - דרום, תל אביב יפו  <= 0.5\nmse = 1090275.0\nsamples = 13\nvalue = 6785.0", fillcolor="#f9e4d5"] ;
202 -> 203 ;
204 [label=" הדר יוסף, תל אביב יפו  <= 0.5\nmse = 1078781.163\nsamples = 12\nvalue = 6726.316", fillcolor="#fae5d6"] ;
203 -> 204 ;
205 [label="Floor <= 0.5\nmse = 1043580.247\nsamples = 11\nvalue = 6655.556", fillcolor="#fae5d6"] ;
204 -> 205 ;
206 [label=" הצפון הישן - צפון, תל אביב יפו  <= 0.5\nmse = 1620000.0\nsamples = 2\nvalue = 5200.0", fillcolor="#fbeee4"] ;
205 -> 206 ;
207 [label="mse = 0.0\nsamples = 1\nvalue = 4300.0", fillcolor="#fdf3ec"] ;
206 -> 207 ;
208 [label="mse = 0.0\nsamples = 1\nvalue = 7000.0", fillcolor="#f9e3d3"] ;
206 -> 208 ;
209 [label="Rooms <= 3.25\nmse = 419822.222\nsamples = 9\nvalue = 6946.667", fillcolor="#f9e3d4"] ;
205 -> 209 ;
210 [label="Floor <= 2.5\nmse = 504722.222\nsamples = 7\nvalue = 6883.333", fillcolor="#f9e4d4"] ;
209 -> 210 ;
211 [label="Floor <= 1.5\nmse = 709795.918\nsamples = 5\nvalue = 7014.286", fillcolor="#f9e3d3"] ;
210 -> 211 ;
212 [label=" נווה צדק, תל אביב יפו  <= 0.5\nmse = 828055.556\nsamples = 4\nvalue = 7016.667", fillcolor="#f9e3d3"] ;
211 -> 212 ;
213 [label=" הצפון הישן - צפון, תל אביב יפו  <= 0.5\nmse = 833600.0\nsamples = 3\nvalue = 7180.0", fillcolor="#f9e2d1"] ;
212 -> 213 ;
214 [label="mse = 0.0\nsamples = 1\nvalue = 7200.0", fillcolor="#f9e2d1"] ;
213 -> 214 ;
215 [label="mse = 1388888.889\nsamples = 2\nvalue = 7166.667", fillcolor="#f9e2d2"] ;
213 -> 215 ;
216 [label="mse = 0.0\nsamples = 1\nvalue = 6200.0", fillcolor="#fae8db"] ;
212 -> 216 ;
217 [label="mse = 0.0\nsamples = 1\nvalue = 7000.0", fillcolor="#f9e3d3"] ;
211 -> 217 ;
218 [label=" כרם התימנים, תל אביב יפו  <= 0.5\nmse = 160000.0\nsamples = 2\nvalue = 6700.0", fillcolor="#fae5d6"] ;
210 -> 218 ;
219 [label="mse = 0.0\nsamples = 1\nvalue = 6500.0", fillcolor="#fae6d8"] ;
218 -> 219 ;
220 [label="mse = 0.0\nsamples = 1\nvalue = 7500.0", fillcolor="#f9e0ce"] ;
218 -> 220 ;
221 [label="mse = 0.0\nsamples = 2\nvalue = 7200.0", fillcolor="#f9e2d1"] ;
209 -> 221 ;
222 [label="mse = 0.0\nsamples = 1\nvalue = 8000.0", fillcolor="#f8ddca"] ;
204 -> 222 ;
223 [label="mse = 0.0\nsamples = 1\nvalue = 7900.0", fillcolor="#f8decb"] ;
203 -> 223 ;
224 [label="mse = 0.0\nsamples = 1\nvalue = 9500.0", fillcolor="#f6d4bc"] ;
202 -> 224 ;
225 [label="Square-meter <= 115.0\nmse = 6502500.0\nsamples = 2\nvalue = 10450.0", fillcolor="#f5cfb3"] ;
173 -> 225 ;
226 [label="mse = 0.0\nsamples = 1\nvalue = 13000.0", fillcolor="#f2bf9b"] ;
225 -> 226 ;
227 [label="mse = 0.0\nsamples = 1\nvalue = 7900.0", fillcolor="#f8decb"] ;
225 -> 227 ;
228 [label="Floor <= 2.0\nmse = 421875.0\nsamples = 2\nvalue = 6875.0", fillcolor="#f9e4d4"] ;
172 -> 228 ;
229 [label="mse = 0.0\nsamples = 1\nvalue = 6500.0", fillcolor="#fae6d8"] ;
228 -> 229 ;
230 [label="mse = 0.0\nsamples = 1\nvalue = 8000.0", fillcolor="#f8ddca"] ;
228 -> 230 ;
231 [label="Floor <= 1.5\nmse = 2652380.952\nsamples = 12\nvalue = 8100.0", fillcolor="#f8ddc9"] ;
171 -> 231 ;
232 [label=" הדר יוסף, תל אביב יפו  <= 0.5\nmse = 3152892.562\nsamples = 5\nvalue = 8772.727", fillcolor="#f7d9c3"] ;
231 -> 232 ;
233 [label="Square-meter <= 85.0\nmse = 1940000.0\nsamples = 4\nvalue = 8400.0", fillcolor="#f8dbc6"] ;
232 -> 233 ;
234 [label="mse = 0.0\nsamples = 1\nvalue = 6000.0", fillcolor="#fae9dc"] ;
233 -> 234 ;
235 [label=" כרם התימנים, תל אביב יפו  <= 0.5\nmse = 625000.0\nsamples = 3\nvalue = 9000.0", fillcolor="#f7d7c0"] ;
233 -> 235 ;
236 [label=" לב תל אביב, לב העיר צפון, תל אביב יפו  <= 0.5\nmse = 750000.0\nsamples = 2\nvalue = 8500.0", fillcolor="#f7dac5"] ;
235 -> 236 ;
237 [label="mse = 0.0\nsamples = 1\nvalue = 10000.0", fillcolor="#f6d1b7"] ;
236 -> 237 ;
238 [label="mse = 0.0\nsamples = 1\nvalue = 8000.0", fillcolor="#f8ddca"] ;
236 -> 238 ;
239 [label="mse = 0.0\nsamples = 1\nvalue = 9500.0", fillcolor="#f6d4bc"] ;
235 -> 239 ;
240 [label="mse = 0.0\nsamples = 1\nvalue = 12500.0", fillcolor="#f2c2a0"] ;
232 -> 240 ;
241 [label=" כרם התימנים, תל אביב יפו  <= 0.5\nmse = 1056400.0\nsamples = 7\nvalue = 7360.0", fillcolor="#f9e1d0"] ;
231 -> 241 ;
242 [label=" הדר יוסף, תל אביב יפו  <= 0.5\nmse = 1061875.0\nsamples = 5\nvalue = 7525.0", fillcolor="#f9e0ce"] ;
241 -> 242 ;
243 [label="Rooms <= 3.25\nmse = 1572500.0\nsamples = 4\nvalue = 8050.0", fillcolor="#f8ddc9"] ;
242 -> 243 ;
244 [label="Floor <= 2.5\nmse = 406666.667\nsamples = 3\nvalue = 7400.0", fillcolor="#f9e1cf"] ;
243 -> 244 ;
245 [label="mse = 0.0\nsamples = 1\nvalue = 8300.0", fillcolor="#f8dbc7"] ;
244 -> 245 ;
246 [label="Floor <= 3.5\nmse = 2500.0\nsamples = 2\nvalue = 6950.0", fillcolor="#f9e3d4"] ;
244 -> 246 ;
247 [label="mse = 0.0\nsamples = 1\nvalue = 6900.0", fillcolor="#f9e4d4"] ;
246 -> 247 ;
248 [label="mse = 0.0\nsamples = 1\nvalue = 7000.0", fillcolor="#f9e3d3"] ;
246 -> 248 ;
249 [label="mse = 0.0\nsamples = 1\nvalue = 10000.0", fillcolor="#f6d1b7"] ;
243 -> 249 ;
250 [label="mse = 0.0\nsamples = 1\nvalue = 7000.0", fillcolor="#f9e3d3"] ;
242 -> 250 ;
251 [label="Refurbished <= 0.5\nmse = 490000.0\nsamples = 2\nvalue = 6700.0", fillcolor="#fae5d6"] ;
241 -> 251 ;
252 [label="mse = 0.0\nsamples = 1\nvalue = 7400.0", fillcolor="#f9e1cf"] ;
251 -> 252 ;
253 [label="mse = 0.0\nsamples = 1\nvalue = 6000.0", fillcolor="#fae9dc"] ;
251 -> 253 ;
254 [label="Rooms <= 3.25\nmse = 91875.0\nsamples = 2\nvalue = 5725.0", fillcolor="#fbebdf"] ;
170 -> 254 ;
255 [label="mse = 0.0\nsamples = 1\nvalue = 5900.0", fillcolor="#fbeadd"] ;
254 -> 255 ;
256 [label="mse = 0.0\nsamples = 1\nvalue = 5200.0", fillcolor="#fbeee4"] ;
254 -> 256 ;
257 [label="Rooms <= 3.25\nmse = 151875.0\nsamples = 7\nvalue = 4925.0", fillcolor="#fcefe6"] ;
169 -> 257 ;
258 [label="Floor <= 3.5\nmse = 92343.75\nsamples = 5\nvalue = 5137.5", fillcolor="#fceee4"] ;
257 -> 258 ;
259 [label="Refurbished <= 0.5\nmse = 64722.222\nsamples = 4\nvalue = 5016.667", fillcolor="#fcefe6"] ;
258 -> 259 ;
260 [label="mse = 0.0\nsamples = 1\nvalue = 5100.0", fillcolor="#fceee5"] ;
259 -> 260 ;
261 [label="Floor <= 1.5\nmse = 115555.556\nsamples = 3\nvalue = 4933.333", fillcolor="#fcefe6"] ;
259 -> 261 ;
262 [label="mse = 0.0\nsamples = 1\nvalue = 4600.0", fillcolor="#fcf1ea"] ;
261 -> 262 ;
263 [label="Square-meter <= 67.0\nmse = 90000.0\nsamples = 2\nvalue = 5100.0", fillcolor="#fceee5"] ;
261 -> 263 ;
264 [label="mse = 0.0\nsamples = 1\nvalue = 4800.0", fillcolor="#fcf0e8"] ;
263 -> 264 ;
265 [label="mse = 0.0\nsamples = 1\nvalue = 5400.0", fillcolor="#fbede2"] ;
263 -> 265 ;
266 [label="mse = 0.0\nsamples = 1\nvalue = 5500.0", fillcolor="#fbece1"] ;
258 -> 266 ;
267 [label="mse = 0.0\nsamples = 2\nvalue = 4500.0", fillcolor="#fcf2ea"] ;
257 -> 267 ;
268 [label="Refurbished <= 0.5\nmse = 3132562.87\nsamples = 35\nvalue = 8694.231", fillcolor="#f7d9c3"] ;
168 -> 268 ;
269 [label="Furniture <= 0.5\nmse = 690585.938\nsamples = 6\nvalue = 7331.25", fillcolor="#f9e1d0"] ;
268 -> 269 ;
270 [label="Square-meter <= 99.0\nmse = 751428.571\nsamples = 5\nvalue = 7400.0", fillcolor="#f9e1cf"] ;
269 -> 270 ;
271 [label="Square-meter <= 72.5\nmse = 378888.889\nsamples = 4\nvalue = 7133.333", fillcolor="#f9e2d2"] ;
270 -> 271 ;
272 [label="mse = 0.0\nsamples = 1\nvalue = 5900.0", fillcolor="#fbeadd"] ;
271 -> 272 ;
273 [label="Square-meter <= 87.5\nmse = 89600.0\nsamples = 3\nvalue = 7380.0", fillcolor="#f9e1d0"] ;
271 -> 273 ;
274 [label="  תל אבי:ב יפו  <= 0.5\nmse = 35555.556\nsamples = 2\nvalue = 7166.667", fillcolor="#f9e2d2"] ;
273 -> 274 ;
275 [label="mse = 0.0\nsamples = 1\nvalue = 6900.0", fillcolor="#f9e4d4"] ;
274 -> 275 ;
276 [label="mse = 0.0\nsamples = 1\nvalue = 7300.0", fillcolor="#f9e1d0"] ;
274 -> 276 ;
277 [label="mse = 0.0\nsamples = 1\nvalue = 7700.0", fillcolor="#f8dfcd"] ;
273 -> 277 ;
278 [label="mse = 0.0\nsamples = 1\nvalue = 9000.0", fillcolor="#f7d7c0"] ;
270 -> 278 ;
279 [label="mse = 0.0\nsamples = 1\nvalue = 6850.0", fillcolor="#f9e4d5"] ;
269 -> 279 ;
280 [label="north <= 0.5\nmse = 3177379.907\nsamples = 29\nvalue = 8942.045", fillcolor="#f7d8c1"] ;
268 -> 280 ;
281 [label="Floor <= 2.5\nmse = 3613583.984\nsamples = 20\nvalue = 9221.875", fillcolor="#f7d6be"] ;
280 -> 281 ;
282 [label=" הצפון החדש - דרום, תל אביב יפו  <= 0.5\nmse = 3163379.501\nsamples = 13\nvalue = 9636.842", fillcolor="#f6d3ba"] ;
281 -> 282 ;
283 [label=" לב תל אביב, לב העיר צפון, תל אביב יפו  <= 0.5\nmse = 3202773.438\nsamples = 11\nvalue = 9918.75", fillcolor="#f6d2b8"] ;
282 -> 283 ;
284 [label="Rooms <= 3.5\nmse = 4083600.0\nsamples = 7\nvalue = 10420.0", fillcolor="#f5cfb3"] ;
283 -> 284 ;
285 [label="Floor <= 1.5\nmse = 3478593.75\nsamples = 5\nvalue = 10412.5", fillcolor="#f5cfb3"] ;
284 -> 285 ;
286 [label="Square-meter <= 90.0\nmse = 888888.889\nsamples = 2\nvalue = 8666.667", fillcolor="#f7d9c4"] ;
285 -> 286 ;
287 [label="mse = 0.0\nsamples = 1\nvalue = 8000.0", fillcolor="#f8ddca"] ;
286 -> 287 ;
288 [label="mse = 0.0\nsamples = 1\nvalue = 10000.0", fillcolor="#f6d1b7"] ;
286 -> 288 ;
289 [label="Square-meter <= 76.0\nmse = 2106400.0\nsamples = 3\nvalue = 11460.0", fillcolor="#f4c9a9"] ;
285 -> 289 ;
290 [label="mse = 0.0\nsamples = 1\nvalue = 8800.0", fillcolor="#f7d8c2"] ;
289 -> 290 ;
291 [label="Square-meter <= 87.5\nmse = 421875.0\nsamples = 2\nvalue = 12125.0", fillcolor="#f3c5a3"] ;
289 -> 291 ;
292 [label="mse = 0.0\nsamples = 1\nvalue = 11000.0", fillcolor="#f4cbae"] ;
291 -> 292 ;
293 [label="mse = 0.0\nsamples = 1\nvalue = 12500.0", fillcolor="#f2c2a0"] ;
291 -> 293 ;
294 [label="Furniture <= 0.5\nmse = 6502500.0\nsamples = 2\nvalue = 10450.0", fillcolor="#f5cfb3"] ;
284 -> 294 ;
295 [label="mse = 0.0\nsamples = 1\nvalue = 7900.0", fillcolor="#f8decb"] ;
294 -> 295 ;
296 [label="mse = 0.0\nsamples = 1\nvalue = 13000.0", fillcolor="#f2bf9b"] ;
294 -> 296 ;
297 [label="Floor <= 1.5\nmse = 618055.556\nsamples = 4\nvalue = 9083.333", fillcolor="#f7d7c0"] ;
283 -> 297 ;
298 [label="Floor <= 0.5\nmse = 296875.0\nsamples = 3\nvalue = 8625.0", fillcolor="#f7d9c4"] ;
297 -> 298 ;
299 [label="mse = 0.0\nsamples = 1\nvalue = 9500.0", fillcolor="#f6d4bc"] ;
298 -> 299 ;
300 [label="Square-meter <= 80.0\nmse = 55555.556\nsamples = 2\nvalue = 8333.333", fillcolor="#f8dbc7"] ;
298 -> 300 ;
301 [label="mse = 0.0\nsamples = 1\nvalue = 8500.0", fillcolor="#f7dac5"] ;
300 -> 301 ;
302 [label="mse = 0.0\nsamples = 1\nvalue = 8000.0", fillcolor="#f8ddca"] ;
300 -> 302 ;
303 [label="mse = 0.0\nsamples = 1\nvalue = 10000.0", fillcolor="#f6d1b7"] ;
297 -> 303 ;
304 [label="Square-meter <= 90.0\nmse = 268888.889\nsamples = 2\nvalue = 8133.333", fillcolor="#f8dcc9"] ;
282 -> 304 ;
305 [label="mse = 0.0\nsamples = 1\nvalue = 7400.0", fillcolor="#f9e1cf"] ;
304 -> 305 ;
306 [label="mse = 0.0\nsamples = 1\nvalue = 8500.0", fillcolor="#f7dac5"] ;
304 -> 306 ;
307 [label=" תל חיים, תל אביב יפו  <= 0.5\nmse = 3652071.006\nsamples = 7\nvalue = 8615.385", fillcolor="#f7d9c4"] ;
281 -> 307 ;
308 [label="Rooms <= 3.5\nmse = 1529876.543\nsamples = 6\nvalue = 9688.889", fillcolor="#f6d3ba"] ;
307 -> 308 ;
309 [label="Furniture <= 0.5\nmse = 1801388.889\nsamples = 4\nvalue = 9283.333", fillcolor="#f6d5be"] ;
308 -> 309 ;
310 [label="mse = 0.0\nsamples = 1\nvalue = 11500.0", fillcolor="#f4c8a9"] ;
309 -> 310 ;
311 [label=" לב תל אביב, לב העיר צפון, תל אביב יפו  <= 0.5\nmse = 982400.0\nsamples = 3\nvalue = 8840.0", fillcolor="#f7d8c2"] ;
309 -> 311 ;
312 [label="Square-meter <= 105.0\nmse = 1210000.0\nsamples = 2\nvalue = 8900.0", fillcolor="#f7d8c1"] ;
311 -> 312 ;
313 [label="mse = 0.0\nsamples = 1\nvalue = 10000.0", fillcolor="#f6d1b7"] ;
312 -> 313 ;
314 [label="mse = 0.0\nsamples = 1\nvalue = 7800.0", fillcolor="#f8decc"] ;
312 -> 314 ;
315 [label="mse = 0.0\nsamples = 1\nvalue = 8600.0", fillcolor="#f7dac4"] ;
311 -> 315 ;
316 [label="mse = 0.0\nsamples = 2\nvalue = 10500.0", fillcolor="#f5ceb2"] ;
308 -> 316 ;
317 [label="mse = 0.0\nsamples = 1\nvalue = 6200.0", fillcolor="#fae8db"] ;
307 -> 317 ;
318 [label="Square-meter <= 80.0\nmse = 1248524.306\nsamples = 9\nvalue = 8195.833", fillcolor="#f8dcc8"] ;
280 -> 318 ;
319 [label="Square-meter <= 68.5\nmse = 250000.0\nsamples = 2\nvalue = 6000.0", fillcolor="#fae9dc"] ;
318 -> 319 ;
320 [label="mse = 0.0\nsamples = 1\nvalue = 5500.0", fillcolor="#fbece1"] ;
319 -> 320 ;
321 [label="mse = 0.0\nsamples = 1\nvalue = 6500.0", fillcolor="#fae6d8"] ;
319 -> 321 ;
322 [label="Furniture <= 0.5\nmse = 291025.0\nsamples = 7\nvalue = 8635.0", fillcolor="#f7d9c4"] ;
318 -> 322 ;
323 [label="Floor <= 3.0\nmse = 67500.0\nsamples = 2\nvalue = 8350.0", fillcolor="#f8dbc6"] ;
322 -> 323 ;
324 [label="mse = 0.0\nsamples = 1\nvalue = 8200.0", fillcolor="#f8dcc8"] ;
323 -> 324 ;
325 [label="mse = 0.0\nsamples = 1\nvalue = 8800.0", fillcolor="#f7d8c2"] ;
323 -> 325 ;
326 [label=" רמת אביב ג', תל אביב יפו  <= 0.5\nmse = 349791.667\nsamples = 5\nvalue = 8825.0", fillcolor="#f7d8c2"] ;
322 -> 326 ;
327 [label="Floor <= 2.5\nmse = 191600.0\nsamples = 4\nvalue = 8630.0", fillcolor="#f7d9c4"] ;
326 -> 327 ;
328 [label=" הגוש הגדול, רמת אביב החדשה, נופי ים, תל אביב יפו  <= 0.5\nmse = 95000.0\nsamples = 3\nvalue = 8800.0", fillcolor="#f7d8c2"] ;
327 -> 328 ;
329 [label="Square-meter <= 123.5\nmse = 108888.889\nsamples = 2\nvalue = 8733.333", fillcolor="#f7d9c3"] ;
328 -> 329 ;
330 [label="mse = 0.0\nsamples = 1\nvalue = 9200.0", fillcolor="#f7d6bf"] ;
329 -> 330 ;
331 [label="mse = 0.0\nsamples = 1\nvalue = 8500.0", fillcolor="#f7dac5"] ;
329 -> 331 ;
332 [label="mse = 0.0\nsamples = 1\nvalue = 9000.0", fillcolor="#f7d7c0"] ;
328 -> 332 ;
333 [label="mse = 0.0\nsamples = 1\nvalue = 7950.0", fillcolor="#f8ddca"] ;
327 -> 333 ;
334 [label="mse = 0.0\nsamples = 1\nvalue = 9800.0", fillcolor="#f6d2b9"] ;
326 -> 334 ;
335 [label="Square-meter <= 97.5\nmse = 4798677.686\nsamples = 6\nvalue = 9563.636", fillcolor="#f6d4bb"] ;
167 -> 335 ;
336 [label="Furniture <= 0.5\nmse = 300000.0\nsamples = 4\nvalue = 8400.0", fillcolor="#f8dbc6"] ;
335 -> 336 ;
337 [label="Floor <= 1.5\nmse = 9600.0\nsamples = 3\nvalue = 8820.0", fillcolor="#f7d8c2"] ;
336 -> 337 ;
338 [label="mse = 0.0\nsamples = 1\nvalue = 8700.0", fillcolor="#f7d9c3"] ;
337 -> 338 ;
339 [label="mse = 0.0\nsamples = 2\nvalue = 8900.0", fillcolor="#f7d8c1"] ;
337 -> 339 ;
340 [label="mse = 0.0\nsamples = 1\nvalue = 7700.0", fillcolor="#f8dfcd"] ;
336 -> 340 ;
341 [label="Rooms <= 3.75\nmse = 3555555.556\nsamples = 2\nvalue = 12666.667", fillcolor="#f2c19e"] ;
335 -> 341 ;
342 [label="mse = 0.0\nsamples = 1\nvalue = 14000.0", fillcolor="#f1b992"] ;
341 -> 342 ;
343 [label="mse = 0.0\nsamples = 1\nvalue = 10000.0", fillcolor="#f6d1b7"] ;
341 -> 343 ;
344 [label="Floor <= 3.5\nmse = 11741135.734\nsamples = 24\nvalue = 12521.053", fillcolor="#f2c2a0"] ;
166 -> 344 ;
345 [label=" מונטיפיורי, הרכבת, תל אביב יפו  <= 0.5\nmse = 11540189.92\nsamples = 23\nvalue = 12637.838", fillcolor="#f2c29e"] ;
344 -> 345 ;
346 [label="Floor <= 1.5\nmse = 10953302.469\nsamples = 22\nvalue = 12794.444", fillcolor="#f2c19d"] ;
345 -> 346 ;
347 [label="Elevator <= 0.5\nmse = 12433019.391\nsamples = 13\nvalue = 11852.632", fillcolor="#f3c6a6"] ;
346 -> 347 ;
348 [label="center <= 0.5\nmse = 12908163.265\nsamples = 10\nvalue = 12142.857", fillcolor="#f3c4a3"] ;
347 -> 348 ;
349 [label="Rooms <= 5.5\nmse = 15390000.0\nsamples = 8\nvalue = 12900.0", fillcolor="#f2c09c"] ;
348 -> 349 ;
350 [label="Rooms <= 4.5\nmse = 2560000.0\nsamples = 4\nvalue = 11300.0", fillcolor="#f4caab"] ;
349 -> 350 ;
351 [label="Floor <= 0.5\nmse = 2000000.0\nsamples = 2\nvalue = 10500.0", fillcolor="#f5ceb2"] ;
350 -> 351 ;
352 [label="mse = 0.0\nsamples = 1\nvalue = 9500.0", fillcolor="#f6d4bc"] ;
351 -> 352 ;
353 [label="mse = 0.0\nsamples = 1\nvalue = 12500.0", fillcolor="#f2c2a0"] ;
351 -> 353 ;
354 [label="Furniture <= 0.5\nmse = 1000000.0\nsamples = 2\nvalue = 12500.0", fillcolor="#f2c2a0"] ;
350 -> 354 ;
355 [label="mse = 0.0\nsamples = 1\nvalue = 13500.0", fillcolor="#f1bc96"] ;
354 -> 355 ;
356 [label="mse = 0.0\nsamples = 1\nvalue = 11500.0", fillcolor="#f4c8a9"] ;
354 -> 356 ;
357 [label="Furniture <= 0.5\nmse = 23100000.0\nsamples = 4\nvalue = 14500.0", fillcolor="#f0b68d"] ;
349 -> 357 ;
358 [label="  תל אביב יפו  <= 0.5\nmse = 3562500.0\nsamples = 3\nvalue = 12250.0", fillcolor="#f3c4a2"] ;
357 -> 358 ;
359 [label="Square-meter <= 235.0\nmse = 1000000.0\nsamples = 2\nvalue = 14000.0", fillcolor="#f1b992"] ;
358 -> 359 ;
360 [label="mse = 0.0\nsamples = 1\nvalue = 15000.0", fillcolor="#efb488"] ;
359 -> 360 ;
361 [label="mse = 0.0\nsamples = 1\nvalue = 13000.0", fillcolor="#f2bf9b"] ;
359 -> 361 ;
362 [label="mse = 0.0\nsamples = 1\nvalue = 10500.0", fillcolor="#f5ceb2"] ;
358 -> 362 ;
363 [label="mse = 0.0\nsamples = 1\nvalue = 23500.0", fillcolor="#e58139"] ;
357 -> 363 ;
364 [label="Furniture <= 0.5\nmse = 1687500.0\nsamples = 2\nvalue = 10250.0", fillcolor="#f5d0b5"] ;
348 -> 364 ;
365 [label="mse = 0.0\nsamples = 1\nvalue = 8000.0", fillcolor="#f8ddca"] ;
364 -> 365 ;
366 [label="mse = 0.0\nsamples = 1\nvalue = 11000.0", fillcolor="#f4cbae"] ;
364 -> 366 ;
367 [label="Square-meter <= 165.0\nmse = 10206400.0\nsamples = 3\nvalue = 11040.0", fillcolor="#f4cbad"] ;
347 -> 367 ;
368 [label="mse = 0.0\nsamples = 1\nvalue = 8500.0", fillcolor="#f7dac5"] ;
367 -> 368 ;
369 [label="north <= 0.5\nmse = 1322500.0\nsamples = 2\nvalue = 14850.0", fillcolor="#f0b48a"] ;
367 -> 369 ;
370 [label="mse = 0.0\nsamples = 1\nvalue = 16000.0", fillcolor="#eeae7f"] ;
369 -> 370 ;
371 [label="mse = 0.0\nsamples = 1\nvalue = 13700.0", fillcolor="#f1bb95"] ;
369 -> 371 ;
372 [label="Furniture <= 0.5\nmse = 7200138.408\nsamples = 9\nvalue = 13847.059", fillcolor="#f1ba93"] ;
346 -> 372 ;
373 [label="Square-meter <= 172.5\nmse = 8900828.402\nsamples = 6\nvalue = 13838.462", fillcolor="#f1ba93"] ;
372 -> 373 ;
374 [label=" נווה צדק, תל אביב יפו  <= 0.5\nmse = 5137600.0\nsamples = 5\nvalue = 12620.0", fillcolor="#f2c29f"] ;
373 -> 374 ;
375 [label=" הגוש הגדול, רמת אביב החדשה, נופי ים, תל אביב יפו  <= 0.5\nmse = 2851875.0\nsamples = 4\nvalue = 11775.0", fillcolor="#f3c7a7"] ;
374 -> 375 ;
376 [label="Square-meter <= 141.5\nmse = 3780000.0\nsamples = 3\nvalue = 11700.0", fillcolor="#f3c7a7"] ;
375 -> 376 ;
377 [label="mse = 0.0\nsamples = 1\nvalue = 9000.0", fillcolor="#f7d7c0"] ;
376 -> 377 ;
378 [label="Square-meter <= 149.0\nmse = 202500.0\nsamples = 2\nvalue = 13050.0", fillcolor="#f2bf9b"] ;
376 -> 378 ;
379 [label="mse = 0.0\nsamples = 1\nvalue = 12600.0", fillcolor="#f2c29f"] ;
378 -> 379 ;
380 [label="mse = 0.0\nsamples = 1\nvalue = 13500.0", fillcolor="#f1bc96"] ;
378 -> 380 ;
381 [label="mse = 0.0\nsamples = 1\nvalue = 12000.0", fillcolor="#f3c5a4"] ;
375 -> 381 ;
382 [label="mse = 0.0\nsamples = 1\nvalue = 16000.0", fillcolor="#eeae7f"] ;
374 -> 382 ;
383 [label="mse = 0.0\nsamples = 1\nvalue = 17900.0", fillcolor="#eca26d"] ;
373 -> 383 ;
384 [label="center <= 0.5\nmse = 1671875.0\nsamples = 3\nvalue = 13875.0", fillcolor="#f1ba93"] ;
372 -> 384 ;
385 [label="mse = 0.0\nsamples = 1\nvalue = 13500.0", fillcolor="#f1bc96"] ;
384 -> 385 ;
386 [label="Refurbished <= 0.5\nmse = 3062500.0\nsamples = 2\nvalue = 14250.0", fillcolor="#f0b88f"] ;
384 -> 386 ;
387 [label="mse = 0.0\nsamples = 1\nvalue = 16000.0", fillcolor="#eeae7f"] ;
386 -> 387 ;
388 [label="mse = 0.0\nsamples = 1\nvalue = 12500.0", fillcolor="#f2c2a0"] ;
386 -> 388 ;
389 [label="mse = 0.0\nsamples = 1\nvalue = 7000.0", fillcolor="#f9e3d3"] ;
345 -> 389 ;
390 [label="mse = 0.0\nsamples = 1\nvalue = 8200.0", fillcolor="#f8dcc8"] ;
344 -> 390 ;
391 [label="Square-meter <= 125.0\nmse = 10445830.515\nsamples = 42\nvalue = 9854.032", fillcolor="#f6d2b8"] ;
1 -> 391 ;
392 [label=" רמת אביב ג', תל אביב יפו  <= 0.5\nmse = 3767172.619\nsamples = 28\nvalue = 8325.0", fillcolor="#f8dbc7"] ;
391 -> 392 ;
393 [label=" לב תל אביב, לב העיר צפון, תל אביב יפו  <= 0.5\nmse = 4259824.49\nsamples = 23\nvalue = 8465.714", fillcolor="#f7dac5"] ;
392 -> 393 ;
394 [label="Floor <= 23.5\nmse = 2752539.027\nsamples = 21\nvalue = 8160.606", fillcolor="#f8dcc8"] ;
393 -> 394 ;
395 [label="center <= 0.5\nmse = 1831715.976\nsamples = 17\nvalue = 7603.846", fillcolor="#f8dfcd"] ;
394 -> 395 ;
396 [label="Rooms <= 4.5\nmse = 243367.347\nsamples = 4\nvalue = 8614.286", fillcolor="#f7d9c4"] ;
395 -> 396 ;
397 [label="mse = 0.0\nsamples = 1\nvalue = 7500.0", fillcolor="#f9e0ce"] ;
396 -> 397 ;
398 [label="Square-meter <= 117.5\nmse = 42500.0\nsamples = 3\nvalue = 8800.0", fillcolor="#f7d8c2"] ;
396 -> 398 ;
399 [label="Square-meter <= 112.5\nmse = 5000.0\nsamples = 2\nvalue = 8600.0", fillcolor="#f7dac4"] ;
398 -> 399 ;
400 [label="mse = 0.0\nsamples = 1\nvalue = 8650.0", fillcolor="#f7d9c4"] ;
399 -> 400 ;
401 [label="mse = 0.0\nsamples = 1\nvalue = 8500.0", fillcolor="#f7dac5"] ;
399 -> 401 ;
402 [label="mse = 0.0\nsamples = 1\nvalue = 9000.0", fillcolor="#f7d7c0"] ;
398 -> 402 ;
403 [label="Square-meter <= 97.5\nmse = 1902160.665\nsamples = 13\nvalue = 7231.579", fillcolor="#f9e2d1"] ;
395 -> 403 ;
404 [label="Floor <= 14.0\nmse = 456835.938\nsamples = 10\nvalue = 6806.25", fillcolor="#f9e4d5"] ;
403 -> 404 ;
405 [label="Rooms <= 3.5\nmse = 112500.0\nsamples = 5\nvalue = 6200.0", fillcolor="#fae8db"] ;
404 -> 405 ;
406 [label="Floor <= 11.5\nmse = 40000.0\nsamples = 3\nvalue = 6400.0", fillcolor="#fae7d9"] ;
405 -> 406 ;
407 [label="Elevator <= 0.5\nmse = 62500.0\nsamples = 2\nvalue = 6250.0", fillcolor="#fae8da"] ;
406 -> 407 ;
408 [label="mse = 0.0\nsamples = 1\nvalue = 6500.0", fillcolor="#fae6d8"] ;
407 -> 408 ;
409 [label="mse = 0.0\nsamples = 1\nvalue = 6000.0", fillcolor="#fae9dc"] ;
407 -> 409 ;
410 [label="mse = 0.0\nsamples = 1\nvalue = 6500.0", fillcolor="#fae6d8"] ;
406 -> 410 ;
411 [label="Floor <= 6.0\nmse = 55555.556\nsamples = 2\nvalue = 5866.667", fillcolor="#fbeade"] ;
405 -> 411 ;
412 [label="mse = 0.0\nsamples = 1\nvalue = 6200.0", fillcolor="#fae8db"] ;
411 -> 412 ;
413 [label="mse = 0.0\nsamples = 1\nvalue = 5700.0", fillcolor="#fbebdf"] ;
411 -> 413 ;
414 [label="Rooms <= 2.5\nmse = 66093.75\nsamples = 5\nvalue = 7412.5", fillcolor="#f9e1cf"] ;
404 -> 414 ;
415 [label="mse = 0.0\nsamples = 1\nvalue = 7500.0", fillcolor="#f9e0ce"] ;
414 -> 415 ;
416 [label="Refurbished <= 0.5\nmse = 84722.222\nsamples = 4\nvalue = 7383.333", fillcolor="#f9e1d0"] ;
414 -> 416 ;
417 [label="Floor <= 19.0\nmse = 62500.0\nsamples = 2\nvalue = 7250.0", fillcolor="#f9e2d1"] ;
416 -> 417 ;
418 [label="mse = 0.0\nsamples = 1\nvalue = 7000.0", fillcolor="#f9e3d3"] ;
417 -> 418 ;
419 [label="mse = 0.0\nsamples = 1\nvalue = 7500.0", fillcolor="#f9e0ce"] ;
417 -> 419 ;
420 [label="Floor <= 17.0\nmse = 22500.0\nsamples = 2\nvalue = 7650.0", fillcolor="#f8dfcd"] ;
416 -> 420 ;
421 [label="mse = 0.0\nsamples = 1\nvalue = 7800.0", fillcolor="#f8decc"] ;
420 -> 421 ;
422 [label="mse = 0.0\nsamples = 1\nvalue = 7500.0", fillcolor="#f9e0ce"] ;
420 -> 422 ;
423 [label="Floor <= 5.5\nmse = 3500000.0\nsamples = 3\nvalue = 9500.0", fillcolor="#f6d4bc"] ;
403 -> 423 ;
424 [label=" הצפון הישן - צפון, תל אביב יפו  <= 0.5\nmse = 2250000.0\nsamples = 2\nvalue = 10500.0", fillcolor="#f5ceb2"] ;
423 -> 424 ;
425 [label="mse = 0.0\nsamples = 1\nvalue = 9000.0", fillcolor="#f7d7c0"] ;
424 -> 425 ;
426 [label="mse = 0.0\nsamples = 1\nvalue = 12000.0", fillcolor="#f3c5a4"] ;
424 -> 426 ;
427 [label="mse = 0.0\nsamples = 1\nvalue = 7500.0", fillcolor="#f9e0ce"] ;
423 -> 427 ;
428 [label=" מונטיפיורי, הרכבת, תל אביב יפו  <= 0.5\nmse = 744897.959\nsamples = 4\nvalue = 10228.571", fillcolor="#f5d0b5"] ;
394 -> 428 ;
429 [label="Floor <= 27.0\nmse = 46875.0\nsamples = 2\nvalue = 10875.0", fillcolor="#f4ccaf"] ;
428 -> 429 ;
430 [label="mse = 0.0\nsamples = 1\nvalue = 10500.0", fillcolor="#f5ceb2"] ;
429 -> 430 ;
431 [label="mse = 0.0\nsamples = 1\nvalue = 11000.0", fillcolor="#f4cbae"] ;
429 -> 431 ;
432 [label="Floor <= 35.5\nmse = 375555.556\nsamples = 2\nvalue = 9366.667", fillcolor="#f6d5bd"] ;
428 -> 432 ;
433 [label="mse = 0.0\nsamples = 1\nvalue = 8500.0", fillcolor="#f7dac5"] ;
432 -> 433 ;
434 [label="mse = 0.0\nsamples = 1\nvalue = 9800.0", fillcolor="#f6d2b9"] ;
432 -> 434 ;
435 [label="Square-meter <= 89.0\nmse = 2250000.0\nsamples = 2\nvalue = 13500.0", fillcolor="#f1bc96"] ;
393 -> 435 ;
436 [label="mse = 0.0\nsamples = 1\nvalue = 12000.0", fillcolor="#f3c5a4"] ;
435 -> 436 ;
437 [label="mse = 0.0\nsamples = 1\nvalue = 15000.0", fillcolor="#efb488"] ;
435 -> 437 ;
438 [label="Furniture <= 0.5\nmse = 709897.959\nsamples = 5\nvalue = 7621.429", fillcolor="#f8dfcd"] ;
392 -> 438 ;
439 [label="Square-meter <= 100.0\nmse = 667968.75\nsamples = 3\nvalue = 7187.5", fillcolor="#f9e2d1"] ;
438 -> 439 ;
440 [label="Floor <= 6.5\nmse = 125000.0\nsamples = 2\nvalue = 6750.0", fillcolor="#fae5d5"] ;
439 -> 440 ;
441 [label="mse = 0.0\nsamples = 1\nvalue = 6500.0", fillcolor="#fae6d8"] ;
440 -> 441 ;
442 [label="mse = 0.0\nsamples = 1\nvalue = 7250.0", fillcolor="#f9e2d1"] ;
440 -> 442 ;
443 [label="mse = 0.0\nsamples = 1\nvalue = 8500.0", fillcolor="#f7dac5"] ;
439 -> 443 ;
444 [label="Floor <= 8.5\nmse = 180000.0\nsamples = 2\nvalue = 8200.0", fillcolor="#f8dcc8"] ;
438 -> 444 ;
445 [label="mse = 0.0\nsamples = 1\nvalue = 7600.0", fillcolor="#f8e0ce"] ;
444 -> 445 ;
446 [label="mse = 0.0\nsamples = 1\nvalue = 8500.0", fillcolor="#f7dac5"] ;
444 -> 446 ;
447 [label=" נווה צדק, תל אביב יפו  <= 0.5\nmse = 9251025.0\nsamples = 14\nvalue = 13065.0", fillcolor="#f2bf9a"] ;
391 -> 447 ;
448 [label="Refurbished <= 0.5\nmse = 7149135.802\nsamples = 13\nvalue = 12505.556", fillcolor="#f2c2a0"] ;
447 -> 448 ;
449 [label="Square-meter <= 138.0\nmse = 2693600.0\nsamples = 4\nvalue = 10720.0", fillcolor="#f5cdb0"] ;
448 -> 449 ;
450 [label="  תל אביב יפו  <= 0.5\nmse = 2500.0\nsamples = 2\nvalue = 9050.0", fillcolor="#f7d7c0"] ;
449 -> 450 ;
451 [label="mse = 0.0\nsamples = 1\nvalue = 9000.0", fillcolor="#f7d7c0"] ;
450 -> 451 ;
452 [label="mse = 0.0\nsamples = 1\nvalue = 9100.0", fillcolor="#f7d7bf"] ;
450 -> 452 ;
453 [label="Floor <= 8.0\nmse = 1388888.889\nsamples = 2\nvalue = 11833.333", fillcolor="#f3c6a6"] ;
449 -> 453 ;
454 [label="mse = 0.0\nsamples = 1\nvalue = 11000.0", fillcolor="#f4cbae"] ;
453 -> 454 ;
455 [label="mse = 0.0\nsamples = 1\nvalue = 13500.0", fillcolor="#f1bc96"] ;
453 -> 455 ;
456 [label=" לב תל אביב, לב העיר צפון, תל אביב יפו  <= 0.5\nmse = 7164940.828\nsamples = 9\nvalue = 13192.308", fillcolor="#f2be99"] ;
448 -> 456 ;
457 [label="Square-meter <= 165.0\nmse = 2773760.331\nsamples = 7\nvalue = 12318.182", fillcolor="#f3c3a1"] ;
456 -> 457 ;
458 [label="Square-meter <= 150.0\nmse = 43367.347\nsamples = 4\nvalue = 11214.286", fillcolor="#f4caac"] ;
457 -> 458 ;
459 [label="north <= 0.5\nmse = 35000.0\nsamples = 3\nvalue = 11300.0", fillcolor="#f4caab"] ;
458 -> 459 ;
460 [label="Rooms <= 4.5\nmse = 13888.889\nsamples = 2\nvalue = 11166.667", fillcolor="#f4caac"] ;
459 -> 460 ;
461 [label="mse = 0.0\nsamples = 1\nvalue = 11250.0", fillcolor="#f4caab"] ;
460 -> 461 ;
462 [label="mse = 0.0\nsamples = 1\nvalue = 11000.0", fillcolor="#f4cbae"] ;
460 -> 462 ;
463 [label="mse = 0.0\nsamples = 1\nvalue = 11500.0", fillcolor="#f4c8a9"] ;
459 -> 463 ;
464 [label="mse = 0.0\nsamples = 1\nvalue = 11000.0", fillcolor="#f4cbae"] ;
458 -> 464 ;
465 [label=" רמת אביב, תל אביב יפו  <= 0.5\nmse = 1687500.0\nsamples = 3\nvalue = 14250.0", fillcolor="#f0b88f"] ;
457 -> 465 ;
466 [label="mse = 0.0\nsamples = 1\nvalue = 15000.0", fillcolor="#efb488"] ;
465 -> 466 ;
467 [label="Rooms <= 4.75\nmse = 2000000.0\nsamples = 2\nvalue = 14000.0", fillcolor="#f1b992"] ;
465 -> 467 ;
468 [label="mse = 0.0\nsamples = 1\nvalue = 13000.0", fillcolor="#f2bf9b"] ;
467 -> 468 ;
469 [label="mse = 0.0\nsamples = 1\nvalue = 16000.0", fillcolor="#eeae7f"] ;
467 -> 469 ;
470 [label="Square-meter <= 145.0\nmse = 4000000.0\nsamples = 2\nvalue = 18000.0", fillcolor="#eca26c"] ;
456 -> 470 ;
471 [label="mse = 0.0\nsamples = 1\nvalue = 16000.0", fillcolor="#eeae7f"] ;
470 -> 471 ;
472 [label="mse = 0.0\nsamples = 1\nvalue = 20000.0", fillcolor="#e9965a"] ;
470 -> 472 ;
473 [label="mse = 0.0\nsamples = 1\nvalue = 18100.0", fillcolor="#eca16b"] ;
447 -> 473 ;
474 [label="Elevator <= 0.5\nmse = 6863655.402\nsamples = 59\nvalue = 5448.421", fillcolor="#fbece2"] ;
0 -> 474 [labeldistance=2.5, labelangle=-45, headlabel="False"] ;
475 [label=" נווה שאנן, תל אביב יפו  <= 0.5\nmse = 9942654.321\nsamples = 34\nvalue = 5155.556", fillcolor="#fbeee4"] ;
474 -> 475 ;
476 [label="  תל אביב יפו  <= 0.5\nmse = 14091437.098\nsamples = 22\nvalue = 5434.848", fillcolor="#fbece2"] ;
475 -> 476 ;
477 [label="Rooms <= 5.0\nmse = 14262780.556\nsamples = 20\nvalue = 5111.667", fillcolor="#fceee5"] ;
476 -> 477 ;
478 [label="Square-meter <= 85.0\nmse = 1426259.566\nsamples = 18\nvalue = 4191.071", fillcolor="#fdf4ed"] ;
477 -> 478 ;
479 [label="Furniture <= 0.5\nmse = 634200.0\nsamples = 16\nvalue = 3870.0", fillcolor="#fdf6f0"] ;
478 -> 479 ;
480 [label="Refurbished <= 0.5\nmse = 241024.306\nsamples = 7\nvalue = 4120.833", fillcolor="#fdf4ee"] ;
479 -> 480 ;
481 [label="mse = 0.0\nsamples = 1\nvalue = 4350.0", fillcolor="#fcf3ec"] ;
480 -> 481 ;
482 [label="Square-meter <= 45.0\nmse = 298024.691\nsamples = 6\nvalue = 4044.444", fillcolor="#fdf5ef"] ;
480 -> 482 ;
483 [label="Square-meter <= 32.5\nmse = 95555.556\nsamples = 3\nvalue = 3333.333", fillcolor="#fef9f5"] ;
482 -> 483 ;
484 [label="Floor <= 1.0\nmse = 90000.0\nsamples = 2\nvalue = 3200.0", fillcolor="#fefaf7"] ;
483 -> 484 ;
485 [label="mse = 0.0\nsamples = 1\nvalue = 2900.0", fillcolor="#fefbf9"] ;
484 -> 485 ;
486 [label="mse = 0.0\nsamples = 1\nvalue = 3500.0", fillcolor="#fef8f4"] ;
484 -> 486 ;
487 [label="mse = 0.0\nsamples = 1\nvalue = 3600.0", fillcolor="#fdf7f3"] ;
483 -> 487 ;
488 [label="Square-meter <= 60.0\nmse = 20000.0\nsamples = 3\nvalue = 4400.0", fillcolor="#fcf3eb"] ;
482 -> 488 ;
489 [label="mse = 0.0\nsamples = 1\nvalue = 4200.0", fillcolor="#fdf4ed"] ;
488 -> 489 ;
490 [label="mse = 0.0\nsamples = 2\nvalue = 4500.0", fillcolor="#fcf2ea"] ;
488 -> 490 ;
491 [label=" שפירא, תל אביב יפו  <= 0.5\nmse = 885443.787\nsamples = 9\nvalue = 3638.462", fillcolor="#fdf7f2"] ;
479 -> 491 ;
492 [label="mse = 0.0\nsamples = 1\nvalue = 2300.0", fillcolor="#ffffff"] ;
491 -> 492 ;
493 [label="Floor <= 0.5\nmse = 661487.603\nsamples = 8\nvalue = 3881.818", fillcolor="#fdf6f0"] ;
491 -> 493 ;
494 [label="Refurbished <= 0.5\nmse = 374400.0\nsamples = 4\nvalue = 3540.0", fillcolor="#fdf8f3"] ;
493 -> 494 ;
495 [label="Square-meter <= 41.5\nmse = 490000.0\nsamples = 2\nvalue = 3700.0", fillcolor="#fdf7f2"] ;
494 -> 495 ;
496 [label="mse = 0.0\nsamples = 1\nvalue = 3000.0", fillcolor="#fefbf8"] ;
495 -> 496 ;
497 [label="mse = 0.0\nsamples = 1\nvalue = 4400.0", fillcolor="#fcf3eb"] ;
495 -> 497 ;
498 [label="Rooms <= 2.25\nmse = 268888.889\nsamples = 2\nvalue = 3433.333", fillcolor="#fef8f4"] ;
494 -> 498 ;
499 [label="mse = 0.0\nsamples = 1\nvalue = 2700.0", fillcolor="#fffdfb"] ;
498 -> 499 ;
500 [label="mse = 0.0\nsamples = 1\nvalue = 3800.0", fillcolor="#fdf6f1"] ;
498 -> 500 ;
501 [label="Floor <= 2.5\nmse = 722222.222\nsamples = 4\nvalue = 4166.667", fillcolor="#fdf4ee"] ;
493 -> 501 ;
502 [label="Refurbished <= 0.5\nmse = 540000.0\nsamples = 3\nvalue = 4400.0", fillcolor="#fcf3eb"] ;
501 -> 502 ;
503 [label="mse = 0.0\nsamples = 1\nvalue = 5000.0", fillcolor="#fcefe6"] ;
502 -> 503 ;
504 [label="Rooms <= 2.0\nmse = 500000.0\nsamples = 2\nvalue = 4000.0", fillcolor="#fdf5ef"] ;
502 -> 504 ;
505 [label="mse = 0.0\nsamples = 1\nvalue = 3000.0", fillcolor="#fefbf8"] ;
504 -> 505 ;
506 [label="mse = 0.0\nsamples = 1\nvalue = 4500.0", fillcolor="#fcf2ea"] ;
504 -> 506 ;
507 [label="mse = 0.0\nsamples = 1\nvalue = 3000.0", fillcolor="#fefbf8"] ;
501 -> 507 ;
508 [label="Square-meter <= 95.0\nmse = 8888.889\nsamples = 2\nvalue = 6866.667", fillcolor="#f9e4d4"] ;
478 -> 508 ;
509 [label="mse = 0.0\nsamples = 1\nvalue = 7000.0", fillcolor="#f9e3d3"] ;
508 -> 509 ;
510 [label="mse = 0.0\nsamples = 1\nvalue = 6800.0", fillcolor="#f9e4d5"] ;
508 -> 510 ;
511 [label="Square-meter <= 260.0\nmse = 16000000.0\nsamples = 2\nvalue = 18000.0", fillcolor="#eca26c"] ;
477 -> 511 ;
512 [label="mse = 0.0\nsamples = 1\nvalue = 22000.0", fillcolor="#e78a47"] ;
511 -> 512 ;
513 [label="mse = 0.0\nsamples = 1\nvalue = 14000.0", fillcolor="#f1b992"] ;
511 -> 513 ;
514 [label="Square-meter <= 155.0\nmse = 888888.889\nsamples = 2\nvalue = 8666.667", fillcolor="#f7d9c4"] ;
476 -> 514 ;
515 [label="mse = 0.0\nsamples = 1\nvalue = 8000.0", fillcolor="#f8ddca"] ;
514 -> 515 ;
516 [label="mse = 0.0\nsamples = 1\nvalue = 10000.0", fillcolor="#f6d1b7"] ;
514 -> 516 ;
517 [label="Square-meter <= 75.0\nmse = 3107936.508\nsamples = 12\nvalue = 4716.667", fillcolor="#fcf1e8"] ;
475 -> 517 ;
518 [label="Rooms <= 2.25\nmse = 748107.639\nsamples = 7\nvalue = 3379.167", fillcolor="#fef9f5"] ;
517 -> 518 ;
519 [label="Refurbished <= 0.5\nmse = 179960.938\nsamples = 5\nvalue = 2818.75", fillcolor="#fefcfa"] ;
518 -> 519 ;
520 [label="Square-meter <= 37.0\nmse = 422500.0\nsamples = 2\nvalue = 3150.0", fillcolor="#fefaf7"] ;
519 -> 520 ;
521 [label="mse = 0.0\nsamples = 1\nvalue = 2500.0", fillcolor="#fffefd"] ;
520 -> 521 ;
522 [label="mse = 0.0\nsamples = 1\nvalue = 3800.0", fillcolor="#fdf6f1"] ;
520 -> 522 ;
523 [label="Floor <= 1.0\nmse = 50347.222\nsamples = 3\nvalue = 2708.333", fillcolor="#fefdfb"] ;
519 -> 523 ;
524 [label="mse = 0.0\nsamples = 1\nvalue = 2500.0", fillcolor="#fffefd"] ;
523 -> 524 ;
525 [label="Floor <= 2.5\nmse = 13888.889\nsamples = 2\nvalue = 2916.667", fillcolor="#fefbf9"] ;
523 -> 525 ;
526 [label="mse = 0.0\nsamples = 1\nvalue = 2750.0", fillcolor="#fefcfb"] ;
525 -> 526 ;
527 [label="mse = 0.0\nsamples = 1\nvalue = 3000.0", fillcolor="#fefbf8"] ;
525 -> 527 ;
528 [label="mse = 0.0\nsamples = 2\nvalue = 4500.0", fillcolor="#fcf2ea"] ;
518 -> 528 ;
529 [label="Refurbished <= 0.5\nmse = 688888.889\nsamples = 5\nvalue = 6500.0", fillcolor="#fae6d8"] ;
517 -> 529 ;
530 [label="mse = 0.0\nsamples = 1\nvalue = 6000.0", fillcolor="#fae9dc"] ;
529 -> 530 ;
531 [label="Square-meter <= 93.5\nmse = 739843.75\nsamples = 4\nvalue = 6562.5", fillcolor="#fae6d7"] ;
529 -> 531 ;
532 [label="mse = 0.0\nsamples = 1\nvalue = 7200.0", fillcolor="#f9e2d1"] ;
531 -> 532 ;
533 [label="Floor <= 2.5\nmse = 166666.667\nsamples = 3\nvalue = 5500.0", fillcolor="#fbece1"] ;
531 -> 533 ;
534 [label="Square-meter <= 97.5\nmse = 62500.0\nsamples = 2\nvalue = 5750.0", fillcolor="#fbeadf"] ;
533 -> 534 ;
535 [label="mse = 0.0\nsamples = 1\nvalue = 6000.0", fillcolor="#fae9dc"] ;
534 -> 535 ;
536 [label="mse = 0.0\nsamples = 1\nvalue = 5500.0", fillcolor="#fbece1"] ;
534 -> 536 ;
537 [label="mse = 0.0\nsamples = 1\nvalue = 5000.0", fillcolor="#fcefe6"] ;
533 -> 537 ;
538 [label=" שפירא, תל אביב יפו  <= 0.5\nmse = 2546638.905\nsamples = 25\nvalue = 5834.146", fillcolor="#fbeade"] ;
474 -> 538 ;
539 [label=" נווה שאנן, תל אביב יפו  <= 0.5\nmse = 2329696.97\nsamples = 20\nvalue = 5800.0", fillcolor="#fbeade"] ;
538 -> 539 ;
540 [label="Floor <= 1.5\nmse = 250000.0\nsamples = 2\nvalue = 5500.0", fillcolor="#fbece1"] ;
539 -> 540 ;
541 [label="mse = 0.0\nsamples = 1\nvalue = 6000.0", fillcolor="#fae9dc"] ;
540 -> 541 ;
542 [label="mse = 0.0\nsamples = 1\nvalue = 5000.0", fillcolor="#fcefe6"] ;
540 -> 542 ;
543 [label="Square-meter <= 90.5\nmse = 2457689.906\nsamples = 18\nvalue = 5819.355", fillcolor="#fbeade"] ;
539 -> 543 ;
544 [label="Square-meter <= 51.0\nmse = 616745.562\nsamples = 15\nvalue = 5330.769", fillcolor="#fbede3"] ;
543 -> 544 ;
545 [label="Refurbished <= 0.5\nmse = 41093.75\nsamples = 4\nvalue = 4387.5", fillcolor="#fcf3ec"] ;
544 -> 545 ;
546 [label="mse = 0.0\nsamples = 1\nvalue = 4600.0", fillcolor="#fcf1ea"] ;
545 -> 546 ;
547 [label="Furniture <= 0.5\nmse = 34722.222\nsamples = 3\nvalue = 4316.667", fillcolor="#fdf3ec"] ;
545 -> 547 ;
548 [label="Square-meter <= 42.5\nmse = 38400.0\nsamples = 2\nvalue = 4340.0", fillcolor="#fcf3ec"] ;
547 -> 548 ;
549 [label="mse = 0.0\nsamples = 1\nvalue = 4100.0", fillcolor="#fdf4ee"] ;
548 -> 549 ;
550 [label="mse = 0.0\nsamples = 1\nvalue = 4500.0", fillcolor="#fcf2ea"] ;
548 -> 550 ;
551 [label="mse = 0.0\nsamples = 1\nvalue = 4200.0", fillcolor="#fdf4ed"] ;
547 -> 551 ;
552 [label="Square-meter <= 73.0\nmse = 301388.889\nsamples = 11\nvalue = 5750.0", fillcolor="#fbeadf"] ;
544 -> 552 ;
553 [label="Rooms <= 2.75\nmse = 84722.222\nsamples = 8\nvalue = 5516.667", fillcolor="#fbece1"] ;
552 -> 553 ;
554 [label="mse = 0.0\nsamples = 2\nvalue = 5200.0", fillcolor="#fbeee4"] ;
553 -> 554 ;
555 [label="Furniture <= 0.5\nmse = 51875.0\nsamples = 6\nvalue = 5675.0", fillcolor="#fbebdf"] ;
553 -> 555 ;
556 [label="Floor <= 4.5\nmse = 22500.0\nsamples = 2\nvalue = 5850.0", fillcolor="#fbeade"] ;
555 -> 556 ;
557 [label="mse = 0.0\nsamples = 1\nvalue = 5700.0", fillcolor="#fbebdf"] ;
556 -> 557 ;
558 [label="mse = 0.0\nsamples = 1\nvalue = 6000.0", fillcolor="#fae9dc"] ;
556 -> 558 ;
559 [label="Floor <= 2.0\nmse = 48055.556\nsamples = 4\nvalue = 5616.667", fillcolor="#fbebe0"] ;
555 -> 559 ;
560 [label="Square-meter <= 69.5\nmse = 38400.0\nsamples = 3\nvalue = 5560.0", fillcolor="#fbece1"] ;
559 -> 560 ;
561 [label="mse = 0.0\nsamples = 1\nvalue = 5400.0", fillcolor="#fbede2"] ;
560 -> 561 ;
562 [label="Refurbished <= 0.5\nmse = 35555.556\nsamples = 2\nvalue = 5666.667", fillcolor="#fbebe0"] ;
560 -> 562 ;
563 [label="mse = 0.0\nsamples = 1\nvalue = 5400.0", fillcolor="#fbede2"] ;
562 -> 563 ;
564 [label="mse = 0.0\nsamples = 1\nvalue = 5800.0", fillcolor="#fbeade"] ;
562 -> 564 ;
565 [label="mse = 0.0\nsamples = 1\nvalue = 5900.0", fillcolor="#fbeadd"] ;
559 -> 565 ;
566 [label="Refurbished <= 0.5\nmse = 408055.556\nsamples = 3\nvalue = 6216.667", fillcolor="#fae8da"] ;
552 -> 566 ;
567 [label="mse = 0.0\nsamples = 1\nvalue = 7000.0", fillcolor="#f9e3d3"] ;
566 -> 567 ;
568 [label="Square-meter <= 82.0\nmse = 151875.0\nsamples = 2\nvalue = 5825.0", fillcolor="#fbeade"] ;
566 -> 568 ;
569 [label="mse = 0.0\nsamples = 1\nvalue = 5600.0", fillcolor="#fbebe0"] ;
568 -> 569 ;
570 [label="mse = 0.0\nsamples = 1\nvalue = 6500.0", fillcolor="#fae6d8"] ;
568 -> 570 ;
571 [label="Square-meter <= 123.5\nmse = 4334400.0\nsamples = 3\nvalue = 8360.0", fillcolor="#f8dbc6"] ;
543 -> 571 ;
572 [label="Square-meter <= 107.0\nmse = 500000.0\nsamples = 2\nvalue = 10000.0", fillcolor="#f6d1b7"] ;
571 -> 572 ;
573 [label="mse = 0.0\nsamples = 1\nvalue = 10500.0", fillcolor="#f5ceb2"] ;
572 -> 573 ;
574 [label="mse = 0.0\nsamples = 1\nvalue = 9000.0", fillcolor="#f7d7c0"] ;
572 -> 574 ;
575 [label="mse = 0.0\nsamples = 1\nvalue = 5900.0", fillcolor="#fbeadd"] ;
571 -> 575 ;
576 [label="Furniture <= 0.5\nmse = 3416875.0\nsamples = 5\nvalue = 5975.0", fillcolor="#fae9dd"] ;
538 -> 576 ;
577 [label="Square-meter <= 76.0\nmse = 1530400.0\nsamples = 4\nvalue = 4760.0", fillcolor="#fcf0e8"] ;
576 -> 577 ;
578 [label="Rooms <= 2.25\nmse = 481875.0\nsamples = 3\nvalue = 4225.0", fillcolor="#fdf4ed"] ;
577 -> 578 ;
579 [label="mse = 0.0\nsamples = 1\nvalue = 3100.0", fillcolor="#fefaf8"] ;
578 -> 579 ;
580 [label="Rooms <= 2.75\nmse = 80000.0\nsamples = 2\nvalue = 4600.0", fillcolor="#fcf1ea"] ;
578 -> 580 ;
581 [label="mse = 0.0\nsamples = 1\nvalue = 4400.0", fillcolor="#fcf3eb"] ;
580 -> 581 ;
582 [label="mse = 0.0\nsamples = 1\nvalue = 5000.0", fillcolor="#fcefe6"] ;
580 -> 582 ;
583 [label="mse = 0.0\nsamples = 1\nvalue = 6900.0", fillcolor="#f9e4d4"] ;
577 -> 583 ;
584 [label="mse = 0.0\nsamples = 1\nvalue = 8000.0", fillcolor="#f8ddca"] ;
576 -> 584 ;
}